-3.924257457256317139e-01 9.314082562923431396e-02 2.168656438589096069e-01 -1.480658203363418579e-01 -8.056273311376571655e-02 -3.015485592186450958e-02 -4.149225056171417236e-01 2.162145227193832397e-01 -5.357432961463928223e-01 5.021736025810241699e-01
-4.423919916152954102e-01 -6.089852750301361084e-02 1.661706343293190002e-02 2.233638614416122437e-01 -4.585371911525726318e-02 3.123540878295898438e-01 -4.846459627151489258e-01 -1.527654230594635010e-01 -3.377005225047469139e-03 7.040131092071533203e-02
-1.586619317531585693e-01 -5.166175961494445801e-01 7.907250523567199707e-02 4.056299626827239990e-01 -3.599645197391510010e-01 3.571683764457702637e-01 1.279667913913726807e-01 -3.243244886398315430e-01 3.663007915019989014e-02 -4.421556293964385986e-01
-1.425253152847290039e-01 -4.029748439788818359e-01 2.926716804504394531e-01 4.926525056362152100e-01 4.627694934606552124e-02 2.626994252204895020e-01 -2.686122991144657135e-02 -2.828927636146545410e-01 -1.195302605628967285e-01 -3.593534827232360840e-01
-4.826172292232513428e-01 -7.853540033102035522e-02 5.663313269615173340e-01 3.292587399482727051e-01 -6.330637633800506592e-02 5.044956207275390625e-01 -6.254927814006805420e-02 -3.470433950424194336e-01 -3.174764215946197510e-01 -5.269087553024291992e-01
-7.966683506965637207e-01 1.279501244425773621e-02 -3.408372700214385986e-01 -5.676249414682388306e-02 9.615207314491271973e-01 -5.126031637191772461e-01 1.923370361328125000e-01 6.153320670127868652e-01 5.607394035905599594e-03 -2.287336289882659912e-01
6.528199315071105957e-01 9.491783976554870605e-01 3.684092164039611816e-01 6.213795542716979980e-01 -6.089478731155395508e-01 2.906368672847747803e-01 -2.483767420053482056e-01 -4.294397830963134766e-01 -3.122133612632751465e-01 -3.487352728843688965e-01
3.274472951889038086e-01 -2.586678415536880493e-02 -7.645384073257446289e-01 4.138892889022827148e-02 7.537989020347595215e-01 4.374051690101623535e-01 2.065534740686416626e-01 4.692873954772949219e-01 -6.495690345764160156e-01 -3.927980959415435791e-01
-8.661322593688964844e-01 -6.325024366378784180e-01 -4.395854473114013672e-02 -4.253854975104331970e-02 3.892595171928405762e-01 -1.251175999641418457e-01 2.128340154886245728e-01 -1.434123069047927856e-01 1.323190182447433472e-01 2.875581383705139160e-01
-6.372718513011932373e-02 -2.437641024589538574e-01 2.307034432888031006e-01 -8.677674531936645508e-01 2.203953266143798828e-01 1.407052725553512573e-01 7.048996090888977051e-01 -8.866919279098510742e-01 5.416839718818664551e-01 1.897424608469009399e-01
2.292830795049667358e-01 8.089850842952728271e-02 -7.405630350112915039e-01 2.865745723247528076e-01 -1.281874161213636398e-02 2.129670679569244385e-01 5.463443994522094727e-01 2.721612751483917236e-01 -2.248197346925735474e-01 6.146299466490745544e-02
9.068819135427474976e-02 -1.987335383892059326e-01 -1.253618597984313965e+00 -1.065219998359680176e+00 1.055446386337280273e+00 6.244631409645080566e-01 4.294554293155670166e-01 -3.967430293560028076e-01 6.411954760551452637e-01 2.185807675123214722e-01
3.508439064025878906e-01 -6.673646718263626099e-02 -4.160484373569488525e-01 7.333283424377441406e-01 -2.062056958675384521e-01 -7.278115749359130859e-01 -1.039883196353912354e-01 8.890039324760437012e-01 -7.491712272167205811e-02 -7.478483021259307861e-02
7.241349816322326660e-01 1.580808460712432861e-01 -2.000210523605346680e+00 -9.173008203506469727e-01 9.694930315017700195e-01 5.168039202690124512e-01 3.908724784851074219e-01 2.080183774232864380e-01 -1.701715588569641113e-01 6.027957201004028320e-01
1.127261575311422348e-02 9.003188461065292358e-02 -4.396026432514190674e-01 -5.075787901878356934e-01 1.021724715828895569e-01 -6.517760753631591797e-01 2.682549953460693359e-01 3.455892801284790039e-01 -2.992722988128662109e-01 6.378928422927856445e-01
-3.511795103549957275e-01 -5.069785937666893005e-02 1.108673065900802612e-01 -4.891548454761505127e-01 1.626035757362842560e-02 2.753379046916961670e-01 -5.258408375084400177e-03 -2.202785313129425049e-01 5.210440158843994141e-01 -6.018958613276481628e-02
8.303815126419067383e-01 -3.720071911811828613e-01 -2.303521931171417236e-01 -2.292917072772979736e-01 8.685142546892166138e-02 -1.031067013740539551e+00 8.539808392524719238e-01 -7.523564696311950684e-01 -9.338794946670532227e-01 1.222309231758117676e+00
1.750665187835693359e+00 -3.431966900825500488e-01 -4.857305586338043213e-01 -9.465662837028503418e-01 5.447126626968383789e-01 -1.265687108039855957e+00 6.700332760810852051e-01 -3.378425240516662598e-01 4.675669968128204346e-02 4.821125268936157227e-01
3.484658598899841309e-01 -1.301214396953582764e-01 -1.551448553800582886e-01 1.031158417463302612e-01 -4.640058279037475586e-01 -1.049790647812187672e-03 -2.073000557720661163e-02 -2.943940088152885437e-02 2.748323678970336914e-01 -7.118038088083267212e-02
1.760625839233398438e-02 1.347735822200775146e-01 2.501250803470611572e-01 -5.744500756263732910e-01 -2.803665399551391602e-01 -7.570031881332397461e-01 -7.928425073623657227e-02 8.107861876487731934e-01 6.781971454620361328e-01 -1.190814841538667679e-02
5.194178819656372070e-01 7.691260576248168945e-01 3.737046718597412109e-01 -9.780101180076599121e-01 -6.667298078536987305e-01 6.599150598049163818e-02 -2.355733700096607208e-02 -8.489483594894409180e-02 3.982438147068023682e-01 1.104207485914230347e-01
9.247183799743652344e-02 -1.830787584185600281e-02 2.306841313838958740e-01 9.753594994544982910e-01 -1.428498387336730957e+00 -1.966733336448669434e-01 -9.640451520681381226e-02 -3.334194719791412354e-01 4.213286340236663818e-01 -1.367501914501190186e-01
-2.642996609210968018e-01 -9.202827215194702148e-01 7.801028490066528320e-01 -1.301883012056350708e-01 3.990202024579048157e-02 -1.005259633064270020e+00 -7.701632976531982422e-01 1.361644148826599121e+00 1.559549826197326183e-03 9.264722466468811035e-03
-2.065916359424591064e-01 4.821056127548217773e-01 1.107257843017578125e+00 8.373382687568664551e-01 -7.839052677154541016e-01 -4.054006636142730713e-01 -1.336117744445800781e+00 5.337948799133300781e-01 9.998098760843276978e-02 -7.097328305244445801e-01
1.247034370899200439e-01 4.934713542461395264e-01 1.156487017869949341e-01 1.165697574615478516e+00 -7.334541678428649902e-01 -9.479167312383651733e-02 -1.364080905914306641e+00 5.215854048728942871e-01 -7.743540406227111816e-01 4.352750182151794434e-01
-8.646445274353027344e-01 -3.496823906898498535e-01 1.454723954200744629e+00 2.546728849411010742e-01 -1.002891778945922852e+00 -6.081598401069641113e-01 5.625966563820838928e-02 1.083616018295288086e-01 6.143398210406303406e-02 -2.432310432195663452e-01
-2.303705960512161255e-01 -5.153898596763610840e-01 1.648685336112976074e+00 3.345333933830261230e-01 -7.206590771675109863e-01 -8.060030639171600342e-02 -3.056905567646026611e-01 -3.504808247089385986e-01 -1.390744000673294067e-01 -1.265922635793685913e-01
-6.961136460304260254e-01 -1.348589956760406494e-01 6.679202318191528320e-01 -3.498320877552032471e-01 2.193658500909805298e-01 4.604305699467658997e-02 -3.827111721038818359e-01 5.744706988334655762e-01 3.208556771278381348e-01 -2.076575756072998047e-01
-4.665983915328979492e-01 2.761217653751373291e-01 5.706138610839843750e-01 4.995756968855857849e-02 -1.006189435720443726e-01 -1.931642889976501465e-01 -8.301173448562622070e-01 1.028431892395019531e+00 -1.871219873428344727e-01 -2.523628771305084229e-01
-3.169163763523101807e-01 -1.225960776209831238e-01 3.827040493488311768e-01 -1.108230948448181152e-01 2.485835403203964233e-01 -1.938113197684288025e-02 -5.671748518943786621e-01 5.473772287368774414e-01 6.331514120101928711e-01 -1.094380021095275879e+00
-1.278560280799865723e+00 -9.892408847808837891e-01 1.437290161848068237e-01 8.795962929725646973e-01 -2.450126856565475464e-01 1.567060828208923340e+00 -4.973607957363128662e-01 -4.141029119491577148e-01 -1.958551257848739624e-01 -1.766871213912963867e-01
8.020871132612228394e-02 -8.322748541831970215e-01 3.031816184520721436e-01 3.532351255416870117e-01 -3.428327739238739014e-01 2.708126604557037354e-01 -9.367569535970687866e-02 1.651776134967803955e-01 -7.159496453823521733e-05 -3.249611258506774902e-01
-5.860071182250976562e-01 4.563793912529945374e-02 -1.652025878429412842e-01 1.037939218804240227e-03 -5.324911475181579590e-01 1.322097897529602051e+00 -9.968324750661849976e-02 -5.826368331909179688e-01 -6.224217638373374939e-02 6.761355400085449219e-01
-3.701771795749664307e-01 1.809505373239517212e-01 -1.125906184315681458e-01 1.011970400810241699e+00 4.437627494335174561e-01 9.338460564613342285e-01 -4.742768704891204834e-01 -1.349415659904479980e+00 -4.331775605678558350e-01 3.151841163635253906e-01
9.160625934600830078e-02 -8.725330233573913574e-01 -1.607694923877716064e-01 6.382968425750732422e-01 -1.620143055915832520e-01 7.396747469902038574e-01 -5.661181211471557617e-01 -3.528611361980438232e-02 -1.974305808544158936e-01 7.577104121446609497e-02
-7.860193252563476562e-01 -6.374390125274658203e-01 1.158163696527481079e-01 6.477950215339660645e-01 1.386029720306396484e-01 5.611407756805419922e-01 2.265041768550872803e-01 -1.024705886840820312e+00 -3.131907582283020020e-01 1.451864838600158691e-01
7.247744500637054443e-02 5.975117087364196777e-01 -1.049571990966796875e+00 -2.000909805297851562e+00 1.504507660865783691e+00 5.389304086565971375e-02 8.003880381584167480e-01 -3.575115203857421875e-01 2.952574491500854492e-01 -4.018886089324951172e-01
4.802454411983489990e-01 3.206581771373748779e-01 -3.856511414051055908e-01 1.260106265544891357e-01 -6.971549987792968750e-02 3.836092650890350342e-01 4.304232597351074219e-01 -4.237484037876129150e-01 -2.759810984134674072e-01 -3.054768145084381104e-01
5.074547529220581055e-01 4.139274060726165771e-01 -7.207559347152709961e-01 -1.128282546997070312e+00 1.389080762863159180e+00 5.052806138992309570e-01 5.406622290611267090e-01 -9.905478954315185547e-01 2.183001637458801270e-01 3.205386176705360413e-02
-6.474968791007995605e-02 2.205101847648620605e-01 -6.114501357078552246e-01 -3.824098408222198486e-01 4.312503337860107422e-01 5.592891573905944824e-01 2.627414651215076447e-02 -1.411586254835128784e-01 -1.049109548330307007e-01 -7.172289490699768066e-02
3.487441241741180420e-01 5.819904208183288574e-01 -5.953257679939270020e-01 -1.551092863082885742e+00 2.644416391849517822e-01 1.824647933244705200e-01 1.115697503089904785e+00 -4.062445759773254395e-01 9.284602403640747070e-01 7.842215299606323242e-01
9.180572628974914551e-01 -1.299188137054443359e-01 -1.459219098091125488e+00 3.288496732711791992e-01 1.059655904769897461e+00 1.525166183710098267e-01 1.398806929588317871e+00 -7.655721306800842285e-01 -5.635555386543273926e-01 7.716692686080932617e-01
1.089764833450317383e+00 -8.554334640502929688e-01 -4.696844518184661865e-01 2.391926012933254242e-02 9.616921544075012207e-01 4.392710924148559570e-01 1.104606509208679199e+00 -2.012890338897705078e+00 -3.037275671958923340e-01 1.839116811752319336e-01
1.148208975791931152e+00 3.848448991775512695e-01 -3.855202794075012207e-01 -1.003304362297058105e+00 -1.408195346593856812e-01 -4.695577323436737061e-01 6.831247806549072266e-01 6.558386087417602539e-01 -3.248086273670196533e-01 -2.540958821773529053e-01
6.926113963127136230e-01 1.135816574096679688e+00 8.533176779747009277e-02 -6.464707851409912109e-01 -1.624913960695266724e-01 -1.464106678962707520e+00 1.145729646086692810e-01 8.483597040176391602e-01 2.591458857059478760e-01 -1.106732368469238281e+00
1.481568217277526855e-01 1.829306006431579590e+00 3.718756735324859619e-01 -2.933301031589508057e-02 -8.506244421005249023e-02 -1.001870393753051758e+00 5.383989810943603516e-01 2.925891876220703125e-01 2.707441151142120361e-01 -1.184223771095275879e+00
8.982780575752258301e-01 -1.190937235951423645e-01 -1.498212665319442749e-01 -1.282273173332214355e+00 -1.207609325647354126e-01 -8.290602564811706543e-01 1.118808388710021973e+00 7.142108082771301270e-01 3.719890415668487549e-01 -3.620336055755615234e-01
-1.013980284333229065e-01 -1.944102197885513306e-01 6.745008826255798340e-01 4.961808919906616211e-01 -2.739303745329380035e-02 -5.421804785728454590e-01 -4.418643116950988770e-01 2.063107341527938843e-01 -3.617883101105690002e-02 -2.320518195629119873e-01
1.388409018516540527e+00 4.851869940757751465e-01 -1.476726979017257690e-01 -1.549958586692810059e+00 -2.196498513221740723e-01 -8.357592821121215820e-01 1.488288521766662598e+00 9.278073906898498535e-02 4.978815615177154541e-01 -5.050674676895141602e-01
8.377687335014343262e-01 -4.709470272064208984e-01 1.450092047452926636e-01 5.159114003181457520e-01 -1.234627008438110352e+00 1.997550576925277710e-01 -4.512066841125488281e-01 1.802342236042022705e-01 2.294111847877502441e-01 9.425012767314910889e-02
-3.342833518981933594e-01 4.530085623264312744e-01 2.269564568996429443e-01 -3.432933390140533447e-01 -3.951337635517120361e-01 -1.350589036941528320e+00 -9.929622411727905273e-01 1.423879384994506836e+00 -9.935209155082702637e-02 1.532615542411804199e+00
4.273441731929779053e-01 1.463561207056045532e-01 6.335553526878356934e-02 3.853055536746978760e-01 2.300117193954065442e-05 2.319258302450180054e-01 1.210356280207633972e-01 6.984885036945343018e-02 -3.614390790462493896e-01 -5.482974648475646973e-01
-1.914602816104888916e-01 3.446798771619796753e-02 7.289156913757324219e-01 9.014503359794616699e-01 -1.922407746315002441e+00 1.294728815555572510e-01 -1.733848690986633301e+00 1.233217835426330566e+00 4.217644929885864258e-01 -9.028299152851104736e-02
-4.300562441349029541e-01 -1.609230160713195801e+00 4.369440376758575439e-01 1.268146783113479614e-01 -4.151844382286071777e-01 -2.220954895019531250e-01 1.658448427915573120e-01 1.246856674551963806e-01 1.544252187013626099e-01 1.188199043273925781e+00
-5.207048654556274414e-01 3.836466073989868164e-01 8.721274137496948242e-01 6.198843717575073242e-01 -9.835430383682250977e-01 5.014842376112937927e-02 -7.001034617424011230e-01 1.118475437164306641e+00 -7.400924563407897949e-01 -7.532227635383605957e-01
4.389198869466781616e-02 -8.391136527061462402e-01 5.038108229637145996e-01 3.223124444484710693e-01 1.146144509315490723e+00 -2.144471108913421631e-01 -2.104917354881763458e-02 -6.642366051673889160e-01 4.958877861499786377e-01 4.543839693069458008e-01
9.243136048316955566e-01 -1.069681763648986816e+00 1.185496523976325989e-01 1.098325848579406738e+00 2.830449044704437256e-01 5.473077297210693359e-01 6.302238702774047852e-01 -1.759020090103149414e+00 -1.143216118216514587e-01 4.014844447374343872e-02
-8.354111313819885254e-01 -1.145444631576538086e+00 2.567372620105743408e-01 4.509054720401763916e-01 -8.438158035278320312e-02 4.770136177539825439e-01 -2.941137552261352539e-01 -2.131325453519821167e-01 -1.378252059221267700e-01 1.149057984352111816e+00
-7.604683637619018555e-01 -5.002548098564147949e-01 -3.284114226698875427e-02 -5.771749615669250488e-01 4.324977099895477295e-01 -3.243685364723205566e-01 -1.065407991409301758e-01 2.209722995758056641e-01 1.966930180788040161e-01 8.406646251678466797e-01
-3.260971978306770325e-02 -2.981725037097930908e-01 8.220390230417251587e-02 -3.248076885938644409e-02 -4.393015503883361816e-01 3.274922370910644531e-01 -3.732144534587860107e-01 -5.772695541381835938e-01 -1.530878394842147827e-01 5.965362191200256348e-01
-1.481013059616088867e+00 -3.904278576374053955e-01 2.224171757698059082e-01 4.272245168685913086e-01 -2.094706334173679352e-02 5.170444846153259277e-01 -1.329331099987030029e-01 -4.111504256725311279e-01 5.140784978866577148e-01 5.876147001981735229e-02
-2.259928733110427856e-02 -2.098885327577590942e-01 -1.169215515255928040e-01 7.424992918968200684e-01 -2.450003027915954590e-01 1.479642093181610107e-02 -2.304567247629165649e-01 1.141110360622406006e-01 -3.329511284828186035e-01 3.828072547912597656e-01
-6.782429218292236328e-01 1.452551245689392090e+00 -8.166207075119018555e-01 -1.521223932504653931e-01 8.050032258033752441e-01 -2.029706984758377075e-01 5.984085202217102051e-01 -6.422109007835388184e-01 -2.154720276594161987e-01 -1.494630426168441772e-01
-4.653285145759582520e-01 -2.391360551118850708e-01 -1.239186078310012817e-01 -1.650027483701705933e-01 7.766209840774536133e-01 2.256091982126235962e-01 -4.287537336349487305e-01 -7.578215003013610840e-02 -2.366888076066970825e-01 -1.702723503112792969e-01
-1.635850816965103149e-01 7.027379870414733887e-01 -3.514502048492431641e-01 -2.089538127183914185e-01 8.871253132820129395e-01 -4.079380035400390625e-01 1.184946060180664062e+00 -1.059772968292236328e+00 -2.197781056165695190e-01 -2.451251149177551270e-01
-2.838208675384521484e-01 -9.840797185897827148e-01 1.726850718259811401e-01 1.280264258384704590e-01 2.684664726257324219e-01 7.721678018569946289e-01 1.997848786413669586e-02 -7.509434819221496582e-01 2.335252314805984497e-01 -5.802882909774780273e-01
-2.795063704252243042e-02 -4.643581807613372803e-01 -4.670128524303436279e-01 -3.908545672893524170e-01 1.199715733528137207e+00 -3.813906311988830566e-01 1.171182036399841309e+00 -9.030642509460449219e-01 -2.786846756935119629e-01 1.140184476971626282e-01
1.904976218938827515e-01 8.675817847251892090e-01 -6.508772969245910645e-01 -9.847393631935119629e-02 6.386500597000122070e-01 -3.485110402107238770e-01 -1.820588558912277222e-01 -3.735349774360656738e-01 -6.068335846066474915e-02 -3.788499236106872559e-01
2.371302843093872070e-01 2.344482392072677612e-01 -1.892035361379384995e-03 3.677723184227943420e-02 3.957141339778900146e-01 2.075061500072479248e-01 -4.683951437473297119e-01 -3.000244684517383575e-02 2.269284725189208984e-01 -6.547446846961975098e-01
8.520209193229675293e-01 -2.858395129442214966e-02 -7.290205359458923340e-01 -8.983895182609558105e-03 2.267898172140121460e-01 5.605150461196899414e-01 5.553457513451576233e-02 8.930895477533340454e-02 3.105808496475219727e-01 -3.796543776988983154e-01
-3.309791684150695801e-01 1.059512019157409668e+00 -4.324766397476196289e-01 -7.372811436653137207e-01 1.698948442935943604e-01 -6.645824760198593140e-02 -5.690916776657104492e-01 5.377777218818664551e-01 1.071951866149902344e+00 -3.589619398117065430e-01
-2.204639911651611328e-01 2.353826463222503662e-01 -4.207216203212738037e-01 1.243211403489112854e-01 -2.268224805593490601e-01 6.560254096984863281e-02 -1.997571289539337158e-01 2.701859176158905029e-01 2.014333307743072510e-01 -6.066969633102416992e-01
8.856389522552490234e-01 -6.525306403636932373e-02 -1.604522913694381714e-01 4.981718212366104126e-02 -1.944382339715957642e-01 1.116514056921005249e-01 5.366037487983703613e-01 -1.401133388280868530e-01 3.261327147483825684e-01 -6.824222207069396973e-01
6.017143726348876953e-01 1.125599741935729980e+00 4.742442965507507324e-01 -3.219946846365928650e-02 -4.060481786727905273e-01 -3.529061079025268555e-01 2.590257525444030762e-01 -2.158786654472351074e-01 4.349245429039001465e-01 -4.773395061492919922e-01
4.747376311570405960e-03 4.205017387866973877e-01 -5.263506770133972168e-01 1.084452793002128601e-01 9.245459735393524170e-02 3.205311670899391174e-02 -3.879790306091308594e-01 4.342885911464691162e-01 -3.407365679740905762e-01 1.516025215387344360e-01
5.992719531059265137e-01 -5.178471803665161133e-01 -5.072158575057983398e-01 1.312922686338424683e-02 -6.150722876191139221e-02 3.560877144336700439e-01 -7.607473433017730713e-02 1.191780995577573776e-02 2.584765553474426270e-01 7.830616086721420288e-02
7.187861204147338867e-02 -5.214102268218994141e-01 6.026685833930969238e-01 5.182753205299377441e-01 -1.175218462944030762e+00 4.116595089435577393e-01 -8.296648263931274414e-01 3.144803345203399658e-01 3.430077061057090759e-02 8.913794159889221191e-01
-4.179830849170684814e-02 -1.087260246276855469e-01 7.603465579450130463e-03 -4.583443403244018555e-01 2.234578728675842285e-01 -1.400536205619573593e-02 -1.401757895946502686e-01 2.191245555877685547e-01 1.292449086904525757e-01 -9.689870476722717285e-02
-2.047327458858489990e-01 3.674458563327789307e-01 1.871892064809799194e-01 1.255136579275131226e-01 -4.742127358913421631e-01 1.170649826526641846e-01 -8.597886562347412109e-01 4.866528511047363281e-01 -1.126659289002418518e-01 1.669974178075790405e-01
6.560573820024728775e-03 -1.428278349339962006e-02 7.149124145507812500e-02 -1.304450184106826782e-01 3.090616762638092041e-01 -4.262391626834869385e-01 -5.372485518455505371e-01 5.956463217735290527e-01 9.351644665002822876e-02 1.598182618618011475e-01
-5.151192098855972290e-02 -4.820806086063385010e-01 1.230189576745033264e-01 5.567599534988403320e-01 -1.146440386772155762e+00 1.194914728403091431e-01 4.733131453394889832e-02 5.772593021392822266e-01 3.485268950462341309e-01 2.197405695915222168e-01
3.338074088096618652e-01 8.424552083015441895e-01 5.576689243316650391e-01 -1.693088263273239136e-01 -3.831613063812255859e-01 -7.961081266403198242e-01 1.540710218250751495e-02 -7.630157284438610077e-03 -3.542656898498535156e-01 5.555648356676101685e-02
2.104418724775314331e-02 -8.142089247703552246e-01 -2.040557377040386200e-02 1.448379874229431152e+00 -1.724898576736450195e+00 6.671540737152099609e-01 5.063061118125915527e-01 1.227926969528198242e+00 -6.471294164657592773e-01 1.912424527108669281e-02
-1.904183924198150635e-01 1.856286168098449707e+00 -8.851537108421325684e-01 -6.159555315971374512e-01 1.572281122207641602e-01 -6.410752534866333008e-01 1.318976730108261108e-01 -6.076362729072570801e-01 8.979579806327819824e-01 4.551444351673126221e-01
-1.658553838729858398e+00 3.411548733711242676e-01 1.631263136863708496e+00 -9.686063528060913086e-01 4.834015369415283203e-01 -9.745503664016723633e-01 1.443671882152557373e-01 1.741630554199218750e+00 -4.897508025169372559e-01 2.813098132610321045e-01
9.321517944335937500e-01 1.018556714057922363e+00 5.088102817535400391e-01 -6.688156127929687500e-01 -3.553967177867889404e-01 -5.414887070655822754e-01 9.235880970954895020e-01 -3.718089461326599121e-01 2.970875799655914307e-01 -1.624433398246765137e-01
-1.234397768974304199e+00 -3.681521415710449219e-01 5.439464449882507324e-01 5.429881811141967773e-01 -2.801305949687957764e-01 1.707708686590194702e-01 -9.959788918495178223e-01 -4.815477132797241211e-01 -6.767954230308532715e-01 8.933601379394531250e-01
-2.386014610528945923e-01 3.591067492961883545e-01 -4.813715219497680664e-01 1.661298871040344238e-01 -5.816815048456192017e-02 1.447568684816360474e-01 -6.198145151138305664e-01 3.931822180747985840e-01 -4.099155068397521973e-01 2.857151031494140625e-01
3.810168057680130005e-02 -1.295953392982482910e+00 3.567919731140136719e-01 1.173558160662651062e-01 4.468132853507995605e-01 3.886298239231109619e-01 6.436746120452880859e-01 -3.410311043262481689e-01 1.822308301925659180e-01 -3.610336780548095703e-01
1.408518403768539429e-01 -7.133810520172119141e-01 4.151638597249984741e-02 -2.299509644508361816e-01 -4.311833679676055908e-01 -1.540109813213348389e-01 2.993309199810028076e-01 7.759662270545959473e-01 6.432358622550964355e-01 3.697199821472167969e-01
-1.437096893787384033e-01 -2.590024769306182861e-01 1.229674369096755981e-01 -1.272574365139007568e-01 -1.259143464267253876e-02 -3.133603036403656006e-01 -2.176794856786727905e-01 3.225517570972442627e-01 -7.265309989452362061e-02 1.582116335630416870e-01
-4.448837339878082275e-01 1.425360739231109619e-01 -9.173870831727981567e-02 2.417709678411483765e-01 8.808981180191040039e-01 -3.002198636531829834e-01 -1.364565342664718628e-01 -8.973060548305511475e-02 -2.201773077249526978e-01 -3.333092629909515381e-01
-3.753125071525573730e-01 3.424660861492156982e-01 -1.783946752548217773e-01 -7.940679788589477539e-02 3.493746519088745117e-01 6.146010756492614746e-02 2.087696343660354614e-01 -1.662970632314682007e-01 -5.860610306262969971e-02 -2.359760254621505737e-01
-3.884798586368560791e-01 3.829054534435272217e-02 1.354420930147171021e-01 9.638341516256332397e-02 -4.357201457023620605e-01 -2.762701809406280518e-01 6.293046474456787109e-01 -4.024000763893127441e-01 -2.583615183830261230e-01 5.140748620033264160e-01
7.227768301963806152e-01 -4.458093643188476562e-02 3.337551951408386230e-01 -2.683741040527820587e-02 -3.543381392955780029e-01 4.507672786712646484e-01 2.696216106414794922e-01 -1.405233293771743774e-01 -1.504934579133987427e-01 -5.625586509704589844e-01
-1.199162080883979797e-01 -5.715777873992919922e-01 1.198486611247062683e-01 -3.920868337154388428e-01 4.230075478553771973e-01 4.036136865615844727e-01 -2.640638649463653564e-01 -3.548605144023895264e-01 7.013428211212158203e-02 -3.394990041851997375e-02
-1.601251512765884399e-01 1.237136125564575195e-01 5.021959543228149414e-01 -1.167278084903955460e-02 9.823165833950042725e-02 -2.765237390995025635e-01 -7.400097250938415527e-01 -2.026169300079345703e-01 9.919216483831405640e-02 -1.072586551308631897e-01
-1.271830439567565918e+00 3.300074338912963867e-01 1.245659112930297852e+00 -8.797254413366317749e-02 3.130649775266647339e-02 2.469115853309631348e-01 -6.154613494873046875e-01 3.347341120243072510e-01 -2.325756847858428955e-01 -4.728819131851196289e-01
-1.779702752828598022e-01 -3.860912621021270752e-01 2.876656688749790192e-02 1.196675658226013184e+00 5.162013769149780273e-01 3.980636298656463623e-01 5.220996737480163574e-01 -2.398466825485229492e+00 1.491611838340759277e+00 6.042090654373168945e-01
-2.954657077789306641e-01 1.064955115318298340e+00 -2.345816791057586670e-01 -1.774315834045410156e-01 6.175304651260375977e-01 -3.053624927997589111e-01 -7.528080940246582031e-01 1.582283675670623779e-01 1.013823002576828003e-01 5.871963128447532654e-02
1.142643332481384277e+00 -8.132404088973999023e-01 -1.828183829784393311e-01 1.055671051144599915e-01 3.029304742813110352e-01 -7.954064756631851196e-02 5.068847537040710449e-01 -4.631552845239639282e-02 4.999680817127227783e-02 -5.887241363525390625e-01
2.652178704738616943e-01 5.133608356118202209e-02 4.814895614981651306e-02 -6.612364947795867920e-02 -6.109271645545959473e-01 1.303385347127914429e-01 -1.482376456260681152e-01 1.138479933142662048e-01 2.908586561679840088e-01 -2.093639224767684937e-01
6.586703658103942871e-01 4.396017193794250488e-01 -1.938883215188980103e-01 3.269771039485931396e-01 -5.044962167739868164e-01 1.286633908748626709e-01 -6.103541254997253418e-01 -2.390013486146926880e-01 -2.958578765392303467e-01 3.533310294151306152e-01
4.955573752522468567e-02 6.785813570022583008e-01 -2.706299722194671631e-01 5.597490072250366211e-01 -1.024741232395172119e-01 2.337961643934249878e-01 -8.108488470315933228e-02 -2.838571071624755859e-01 -3.374863266944885254e-01 1.156210824847221375e-01
1.113050058484077454e-01 3.841422870755195618e-02 -3.348307013511657715e-01 2.296501211822032928e-02 7.083173841238021851e-02 4.758892953395843506e-01 3.152396678924560547e-01 -2.729009687900543213e-01 4.837091639637947083e-02 1.973322406411170959e-02
3.839869499206542969e-01 -6.233913823962211609e-02 1.437430176883935928e-02 1.241478174924850464e-01 -1.056326404213905334e-01 5.403511598706245422e-02 1.223211884498596191e-01 -2.809664011001586914e-01 1.674966067075729370e-01 -2.176583372056484222e-02
1.952109932899475098e-01 -9.832422137260437012e-01 1.107671633362770081e-01 1.225557476282119751e-01 -5.024445652961730957e-01 4.758126139640808105e-01 -1.136495545506477356e-01 6.435753703117370605e-01 5.311570763587951660e-01 3.851939439773559570e-01
6.856726016849279404e-03 -9.191651344299316406e-01 -6.966418772935867310e-02 -2.774028778076171875e-01 4.577438533306121826e-02 3.094983100891113281e-01 1.734765022993087769e-01 -3.231707811355590820e-01 7.641187310218811035e-02 3.504298925399780273e-01
1.471291303634643555e+00 8.528618812561035156e-01 1.925274133682250977e-01 -3.569621443748474121e-01 -4.217690527439117432e-01 -5.014286637306213379e-01 -6.745614409446716309e-01 7.136418223381042480e-01 -2.082566320896148682e-01 -1.535113453865051270e-01
2.035349309444427490e-01 -4.268345832824707031e-01 -1.755990087985992432e-01 -1.702035218477249146e-02 -3.692090883851051331e-02 7.659496665000915527e-01 1.823304891586303711e-01 3.865034878253936768e-01 -5.350373387336730957e-01 -4.715452194213867188e-01
-6.994019746780395508e-01 -5.043182969093322754e-01 -8.452854156494140625e-01 1.307588338851928711e+00 -2.444021850824356079e-01 -2.658688724040985107e-01 5.561000704765319824e-01 -3.962322473526000977e-01 2.034424692392349243e-01 7.693690061569213867e-01
-1.551874995231628418e+00 -9.360575675964355469e-01 -7.721826434135437012e-02 6.743924617767333984e-01 5.189200863242149353e-02 3.377449512481689453e-01 7.102020382881164551e-01 1.486647874116897583e-01 2.227651923894882202e-01 5.917667746543884277e-01
5.636411905288696289e-01 -2.241923570632934570e+00 -1.626909375190734863e-01 3.147811293601989746e-01 -2.301557213068008423e-01 6.150166392326354980e-01 7.435794472694396973e-01 5.271621346473693848e-01 -4.796056747436523438e-01 -2.425811439752578735e-01
-1.468577533960342407e-01 5.910815000534057617e-01 -1.037831529974937439e-01 -6.726849675178527832e-01 1.467007696628570557e-01 -4.831956326961517334e-01 -5.712827444076538086e-01 1.006230354309082031e+00 -5.962697267532348633e-01 4.113695323467254639e-01
-2.425983175635337830e-02 -8.826678991317749023e-01 6.096146106719970703e-01 -2.051376551389694214e-01 3.479195237159729004e-01 2.731955945491790771e-01 2.935243844985961914e-01 -4.223733842372894287e-01 -9.089397788047790527e-01 1.764902323484420776e-01
-7.486438751220703125e-02 5.719822645187377930e-01 6.151200532913208008e-01 -3.293203711509704590e-01 1.425630599260330200e-01 -3.152906000614166260e-01 1.606711387634277344e+00 -5.649665594100952148e-01 2.302127927541732788e-01 -1.174130678176879883e+00
2.581445872783660889e-01 -3.888565301895141602e-01 1.830718219280242920e-01 1.366184502840042114e-01 -2.529803514480590820e-01 -1.670227348804473877e-01 -1.548559516668319702e-01 -1.435573678463697433e-02 6.436784565448760986e-02 8.670245856046676636e-02
-1.732209473848342896e-01 1.266647428274154663e-01 2.629131376743316650e-01 -5.311491340398788452e-02 -2.175215072929859161e-02 2.667794562876224518e-02 2.905960753560066223e-02 -1.871476299129426479e-03 7.327204197645187378e-02 -3.852566480636596680e-01
-1.658938825130462646e-01 7.303586006164550781e-01 -6.301985681056976318e-02 -5.502578020095825195e-01 2.385368794202804565e-01 -4.890826046466827393e-01 -1.456087678670883179e-01 -1.436011791229248047e-01 -2.536894679069519043e-01 -3.329525589942932129e-01
-2.321437746286392212e-01 -2.492163777351379395e-01 1.400821208953857422e-01 2.432289766147732735e-03 -3.522292077541351318e-01 7.958552241325378418e-02 5.522228479385375977e-01 -2.259908914566040039e-01 -4.099076613783836365e-03 -5.095213651657104492e-01
4.321037977933883667e-02 4.468635618686676025e-01 4.778365194797515869e-01 -2.027635872364044189e-01 3.613285124301910400e-01 -5.788317322731018066e-01 3.175583183765411377e-01 -5.036797523498535156e-01 -3.931051492691040039e-01 -1.197062358260154724e-01
-4.549948573112487793e-01 8.358917236328125000e-01 -9.939524531364440918e-02 5.495343804359436035e-01 -9.863011538982391357e-02 1.156097650527954102e-01 2.502036690711975098e-01 -7.568166255950927734e-01 3.138799965381622314e-01 -6.710639595985412598e-01
-1.511506736278533936e-01 2.913492321968078613e-01 2.355480939149856567e-01 -3.747984394431114197e-02 2.384565174579620361e-01 -6.887299418449401855e-01 -2.534992992877960205e-01 -2.171018868684768677e-01 5.117627382278442383e-01 5.433875322341918945e-02
2.845773398876190186e-01 6.685322523117065430e-01 -1.431511342525482178e-01 -2.082223147153854370e-01 -2.249397337436676025e-01 -2.616295218467712402e-01 -7.642987370491027832e-02 -4.590459465980529785e-01 3.644211292266845703e-01 9.793844074010848999e-02
1.164678186178207397e-01 1.492656767368316650e-01 -2.506964504718780518e-01 -3.578209877014160156e-01 8.143768310546875000e-01 -1.196457743644714355e+00 -9.926778078079223633e-01 4.317666888236999512e-01 1.529870748519897461e+00 1.917001754045486450e-01
4.927630424499511719e-01 2.293397039175033569e-01 5.871280282735824585e-02 -8.487311601638793945e-01 8.236294984817504883e-01 -9.944789409637451172e-01 -8.675274848937988281e-01 8.069095015525817871e-01 -2.516012191772460938e-01 5.939972400665283203e-01
-4.074228703975677490e-01 1.753983855247497559e+00 -7.390467822551727295e-02 -9.707380086183547974e-02 -1.643581092357635498e-01 2.912844419479370117e-01 -1.766220033168792725e-01 3.405320346355438232e-01 -3.084034025669097900e-01 -7.743129134178161621e-01
-3.711283206939697266e-02 1.447770595550537109e+00 -1.717944294214248657e-01 -3.249894976615905762e-01 -6.611948013305664062e-01 4.288484454154968262e-01 3.023687899112701416e-01 -5.921865701675415039e-01 5.505051016807556152e-01 -1.612489074468612671e-01
1.222793906927108765e-01 9.409568905830383301e-01 -8.040289282798767090e-01 -1.987688392400741577e-01 -3.771972358226776123e-01 3.180555701255798340e-01 -1.041350886225700378e-01 -3.631441891193389893e-01 7.610891461372375488e-01 -3.054384142160415649e-02
-2.532355487346649170e-01 -1.018287658691406250e+00 -7.397893071174621582e-01 -1.072154715657234192e-01 -4.423315525054931641e-01 4.317153096199035645e-01 -1.347879052162170410e+00 3.885434269905090332e-01 4.660116434097290039e-01 9.954034090042114258e-01
-8.396452069282531738e-01 -4.882665276527404785e-01 -8.756932020187377930e-01 -3.786610364913940430e-01 4.274125695228576660e-01 3.019331991672515869e-01 -1.170521259307861328e+00 1.436846375465393066e+00 -6.728992462158203125e-01 5.775022506713867188e-01
1.268800795078277588e-01 -7.138809561729431152e-01 3.551168143749237061e-01 4.691959023475646973e-01 -7.324433922767639160e-01 -1.417654752731323242e-01 -1.219358593225479126e-01 1.934922859072685242e-02 7.506752014160156250e-01 3.183727562427520752e-01
1.092457845807075500e-01 -2.304336726665496826e-01 -1.066438317298889160e+00 -1.284331381320953369e-01 6.319100260734558105e-01 -2.973034083843231201e-01 -2.489116974174976349e-02 5.476257801055908203e-01 -3.060891330242156982e-01 4.357796013355255127e-01
-5.036048293113708496e-01 5.428610444068908691e-01 7.185626029968261719e-02 2.485430613160133362e-02 -5.880824327468872070e-01 -2.072275727987289429e-01 -1.308883130550384521e-01 -2.497523464262485504e-02 4.781149700284004211e-02 6.429648995399475098e-01
-5.603795647621154785e-01 -4.002319872379302979e-01 -1.025949001312255859e+00 -3.861899673938751221e-02 2.873353064060211182e-01 1.221069812774658203e+00 -2.450279146432876587e-02 3.736840486526489258e-01 -1.289215236902236938e-01 1.468507349491119385e-01
-2.075667232275009155e-01 -5.221187472343444824e-01 -4.850737750530242920e-01 -3.530327677726745605e-01 -2.101422846317291260e-01 9.131737351417541504e-01 1.625197082757949829e-01 6.700542569160461426e-02 -5.308068990707397461e-01 3.116242587566375732e-01
-7.293474674224853516e-01 -1.341164350509643555e+00 -1.405139565467834473e+00 4.574275016784667969e-01 -5.453979372978210449e-01 1.908631086349487305e+00 1.780993223190307617e+00 -1.464924067258834839e-01 -8.198608644306659698e-03 -7.719037532806396484e-01
2.686641514301300049e-01 -1.395893454551696777e+00 7.450048327445983887e-01 -2.046746015548706055e-01 7.357630133628845215e-01 -1.054837107658386230e+00 -5.277388691902160645e-01 9.325355887413024902e-01 -5.558369755744934082e-01 1.127257704734802246e+00
-2.150284945964813232e-01 -7.566106915473937988e-01 -7.046667933464050293e-01 8.064693808555603027e-01 -1.081551074981689453e+00 1.545129418373107910e+00 1.311520934104919434e+00 -5.398913621902465820e-01 -1.667466014623641968e-02 -2.687061429023742676e-01
-6.455997228622436523e-01 -8.556864857673645020e-01 -1.693018972873687744e-01 1.027648448944091797e+00 1.176768615841865540e-01 3.058596849441528320e-01 9.187684655189514160e-01 -1.620778292417526245e-01 1.136473894119262695e+00 -1.482369899749755859e+00
8.345032334327697754e-01 -2.050417959690093994e-01 9.919982403516769409e-02 1.908901780843734741e-01 5.779601335525512695e-01 -1.620874106884002686e-01 -7.624635696411132812e-01 -3.494818508625030518e-01 5.434607267379760742e-01 1.485298760235309601e-02
-5.648474693298339844e-01 -1.226421236991882324e+00 1.244335532188415527e+00 6.545238494873046875e-01 6.048896908760070801e-01 -6.444607377052307129e-01 1.216705515980720520e-01 3.789372742176055908e-01 2.856896817684173584e-01 -1.010595798492431641e+00
3.562093079090118408e-01 -5.144116878509521484e-01 1.260970592498779297e+00 4.178556203842163086e-01 -4.845355153083801270e-01 -6.286441087722778320e-01 3.893831670284271240e-01 6.008092761039733887e-01 -5.346184372901916504e-01 -6.250214576721191406e-01
2.966320142149925232e-02 1.167522668838500977e+00 1.546671628952026367e+00 9.548981487751007080e-02 1.180303543806076050e-01 -7.258891463279724121e-01 7.250552773475646973e-01 -9.874865412712097168e-01 1.175865679979324341e-01 -1.263367414474487305e+00
6.764586567878723145e-01 1.100609421730041504e+00 -1.084458976984024048e-01 -1.049333158880472183e-02 4.834532439708709717e-01 -1.034017443656921387e+00 1.748094558715820312e-01 -5.900356173515319824e-01 -4.064328670501708984e-01 3.897668719291687012e-01
1.835829168558120728e-01 5.074586868286132812e-01 6.624127030372619629e-01 -5.563719868659973145e-01 -6.806042790412902832e-02 3.232771754264831543e-01 5.100704431533813477e-01 -4.470242857933044434e-01 -2.407443374395370483e-01 -6.584845781326293945e-01
2.234330922365188599e-01 1.383931636810302734e-01 -2.824986577033996582e-01 -9.216593950986862183e-02 2.676775157451629639e-01 6.968981027603149414e-01 1.016034483909606934e+00 -1.545719802379608154e-01 -4.166423082351684570e-01 -9.269239306449890137e-01
9.755806922912597656e-01 3.830251991748809814e-01 7.513595223426818848e-01 2.029796093702316284e-01 7.531688362360000610e-02 -1.532773971557617188e+00 -1.525519967079162598e+00 6.743741035461425781e-01 -1.924437582492828369e-01 3.807579278945922852e-01
3.965659812092781067e-02 3.603312671184539795e-01 1.978259086608886719e-01 1.199195310473442078e-01 6.962691545486450195e-01 -7.281709313392639160e-01 2.350790500640869141e-01 -1.144752874970436096e-01 2.281717360019683838e-01 -2.862011790275573730e-01
1.294795513153076172e+00 -5.590102821588516235e-02 1.452583909034729004e+00 5.432370901107788086e-01 -2.378548830747604370e-01 -1.840404868125915527e+00 -7.059931159019470215e-01 1.764901131391525269e-01 -3.087596297264099121e-01 -5.805071443319320679e-02
2.832795381546020508e-01 2.226484298706054688e+00 1.150232315063476562e+00 2.268611192703247070e-01 7.006957530975341797e-01 -1.434890985488891602e+00 -2.058567285537719727e+00 7.251724600791931152e-01 -6.427637487649917603e-02 -6.839981079101562500e-01
-1.182730719447135925e-01 5.419423580169677734e-01 4.608138799667358398e-01 4.942989349365234375e-01 7.106702923774719238e-01 3.399008810520172119e-01 -1.488705396652221680e+00 -6.441853642463684082e-01 3.757494688034057617e-01 1.130867283791303635e-02
1.101824045181274414e+00 2.728506028652191162e-01 8.808141350746154785e-01 -1.965627074241638184e+00 1.052720904350280762e+00 -1.406969189643859863e+00 -6.597994565963745117e-01 1.068096637725830078e+00 -2.321611166000366211e+00 1.493357777595520020e+00
5.579165220260620117e-01 -3.222951889038085938e-01 4.355172216892242432e-01 -7.988933324813842773e-01 4.586765766143798828e-01 -1.826699078083038330e-01 -3.744874000549316406e-01 3.763357996940612793e-01 -2.039912462234497070e+00 2.145563602447509766e+00
3.036475479602813721e-01 -1.180108308792114258e+00 -7.005546689033508301e-01 1.582481414079666138e-01 -8.854606151580810547e-01 4.180529415607452393e-01 4.711277782917022705e-01 1.978361755609512329e-01 -3.864886462688446045e-01 1.284757852554321289e+00
5.589320659637451172e-01 -5.127910375595092773e-01 -9.438804984092712402e-01 -2.552110254764556885e-01 -5.928055644035339355e-01 2.629926800727844238e-01 1.117468595504760742e+00 1.179890409111976624e-01 -4.289798438549041748e-02 4.796043932437896729e-01
-2.191823720932006836e-01 4.136141538619995117e-01 -1.835598707199096680e+00 4.680078476667404175e-03 -8.322416245937347412e-02 1.547527432441711426e+00 -2.808323204517364502e-01 -2.974499464035034180e-01 -6.369102001190185547e-02 4.762992560863494873e-01
3.015492558479309082e-01 -5.474150180816650391e-01 -1.654695570468902588e-01 1.076917171478271484e+00 -6.869777441024780273e-01 2.692580223083496094e-01 -1.990631818771362305e-01 -5.834950208663940430e-01 6.841236948966979980e-01 -4.165494441986083984e-02
-2.281634509563446045e-01 -3.871418237686157227e-01 -9.375363588333129883e-01 -4.284139722585678101e-03 -6.168256327509880066e-02 6.544724106788635254e-01 -1.056302905082702637e+00 -3.501266837120056152e-01 1.092383027076721191e+00 4.108274579048156738e-01
-5.814107656478881836e-01 -6.640740633010864258e-01 -5.758233070373535156e-01 8.433231115341186523e-01 -4.552733600139617920e-01 -1.967984735965728760e-01 5.700579658150672913e-02 5.711523294448852539e-01 8.372709900140762329e-02 8.101567029953002930e-01
-7.122344970703125000e-01 -5.710659027099609375e-01 1.853448301553726196e-01 -6.341005861759185791e-02 -5.517014861106872559e-01 2.342090755701065063e-02 4.406506717205047607e-01 5.335600376129150391e-01 9.509821236133575439e-02 2.053619176149368286e-01
-8.614124059677124023e-01 4.462738037109375000e-01 -4.469430148601531982e-01 -1.620087325572967529e-01 4.673067033290863037e-01 -1.788475215435028076e-01 -4.227550923824310303e-01 -1.610050946474075317e-01 2.351039648056030273e-01 4.003220796585083008e-01
-7.215825319290161133e-01 -8.547676354646682739e-02 -1.375115752220153809e+00 -1.363375782966613770e-02 2.408686280250549316e-01 1.483334064483642578e+00 7.736422419548034668e-01 2.142651528120040894e-01 9.849882125854492188e-02 -3.348386883735656738e-01
-5.516527295112609863e-01 6.766596436500549316e-02 3.222840130329132080e-01 -5.032468438148498535e-01 -6.894828081130981445e-01 1.509310722351074219e+00 6.735305190086364746e-01 -6.216508746147155762e-01 -9.491125494241714478e-02 5.858061313629150391e-01
-2.961673028767108917e-02 -8.182174563407897949e-01 -9.216391444206237793e-01 2.557756900787353516e-01 -1.018253341317176819e-01 6.040579080581665039e-01 -2.941797077655792236e-01 6.974937021732330322e-02 3.648567199707031250e-01 9.004704952239990234e-01
-5.584092140197753906e-01 -8.643939495086669922e-01 -1.199710369110107422e+00 1.450816035270690918e+00 -6.904191374778747559e-01 7.220271229743957520e-01 4.797907173633575439e-01 5.736367702484130859e-01 4.278349578380584717e-01 -4.157651066780090332e-01
-6.367867588996887207e-01 -2.272873520851135254e-01 -5.682368874549865723e-01 3.521173298358917236e-01 -9.494509547948837280e-02 1.640864491462707520e+00 8.540359139442443848e-01 -9.153032898902893066e-01 1.311278104782104492e+00 -1.749557852745056152e+00
-3.501510620117187500e-02 -4.750474989414215088e-01 -6.901236772537231445e-01 4.729128479957580566e-01 5.612483024597167969e-01 1.540557593107223511e-01 -2.442713268101215363e-02 2.309581637382507324e-01 2.879017889499664307e-01 -7.743167877197265625e-01
-6.732550859451293945e-01 -3.757963478565216064e-01 1.056967496871948242e+00 2.654036879539489746e-01 3.580157160758972168e-01 -4.889609515666961670e-01 6.609795987606048584e-02 4.081746339797973633e-01 1.741192638874053955e-01 -1.157497644424438477e+00
-5.478000044822692871e-01 2.125603258609771729e-01 -5.225326418876647949e-01 2.491171061992645264e-01 5.986260175704956055e-01 4.118673205375671387e-01 -1.987242847681045532e-01 3.947675824165344238e-01 -4.015414044260978699e-02 -3.373560011386871338e-01
-3.161405920982360840e-01 5.351927876472473145e-01 4.295315742492675781e-01 -8.531030416488647461e-01 -6.099027022719383240e-02 -9.232930094003677368e-02 1.265976130962371826e-01 1.417587548494338989e-01 4.138834774494171143e-02 3.293732106685638428e-01
-2.409993857145309448e-01 7.008814215660095215e-01 7.165804505348205566e-01 -1.124511122703552246e+00 1.241813659667968750e+00 -4.025835692882537842e-01 4.175917506217956543e-01 -1.787202209234237671e-01 -6.607229709625244141e-01 -3.330866396427154541e-01
5.635347962379455566e-01 7.785969972610473633e-01 5.632237195968627930e-01 -3.071576952934265137e-01 9.244990348815917969e-01 -7.406340837478637695e-01 5.544610619544982910e-01 -6.723425984382629395e-01 -6.386355161666870117e-01 -6.485834121704101562e-01
-1.622482389211654663e-01 5.708857178688049316e-01 5.449131131172180176e-01 -6.810059547424316406e-01 1.393324494361877441e+00 -4.058179259300231934e-01 -7.097156345844268799e-02 9.883009642362594604e-02 -9.669318795204162598e-01 -2.289930880069732666e-01
4.084679782390594482e-01 2.563886344432830811e-01 -4.197490513324737549e-01 -2.837393581867218018e-01 6.512971520423889160e-01 7.721070051193237305e-01 -2.977140843868255615e-01 3.386431038379669189e-01 -6.309144664555788040e-03 -1.439667582511901855e+00
7.789740562438964844e-01 2.520402073860168457e-01 9.260302782058715820e-01 4.123488962650299072e-01 -8.798986077308654785e-01 -3.606988191604614258e-01 -7.860296964645385742e-01 3.548425436019897461e-01 -1.546193063259124756e-01 -2.100986093282699585e-01
1.673809051513671875e+00 8.172628879547119141e-01 1.107979938387870789e-01 1.442187905311584473e+00 1.918452084064483643e-01 -2.793562650680541992e+00 -7.384078502655029297e-01 1.211928129196166992e+00 -4.630679786205291748e-01 -3.907035887241363525e-01
4.179420471191406250e-01 3.257909417152404785e-01 -7.346330583095550537e-02 8.888553828001022339e-02 -1.702021658420562744e-01 7.654209733009338379e-01 -3.631735965609550476e-02 -6.560382843017578125e-01 6.817122697830200195e-01 -1.098010778427124023e+00
3.935355842113494873e-01 -3.070841431617736816e-01 1.147298812866210938e+00 -2.229958474636077881e-01 3.403199613094329834e-01 -5.639070272445678711e-01 -2.469921410083770752e-01 -1.188364401459693909e-01 -1.023738026618957520e+00 2.830929160118103027e-01
1.097278833389282227e+00 7.825788110494613647e-02 -2.343886718153953552e-02 -1.024820327758789062e+00 -1.738511174917221069e-01 -3.442425727844238281e+00 7.925066947937011719e-01 -3.768514841794967651e-03 -3.758793771266937256e-01 1.807287096977233887e+00
4.422183930873870850e-01 -4.064475595951080322e-01 -5.084516853094100952e-02 -9.265740513801574707e-01 -2.374508976936340332e-01 -9.546171426773071289e-01 7.699741125106811523e-01 -3.424296081066131592e-01 4.071100652217864990e-01 6.409259438514709473e-01
9.386407732963562012e-01 6.393878720700740814e-03 -4.390503466129302979e-01 -4.434436857700347900e-01 1.611396372318267822e-01 7.926855236291885376e-02 9.534566402435302734e-01 -4.024581611156463623e-01 -7.061176300048828125e-01 -6.234529614448547363e-02
3.357761502265930176e-01 4.412098973989486694e-02 1.373896718025207520e+00 -1.596516519784927368e-01 -5.151350498199462891e-01 -1.764112114906311035e-01 -6.268653273582458496e-01 -1.886827349662780762e-01 2.090003788471221924e-01 -5.477055311203002930e-01
-1.877820640802383423e-01 4.388892278075218201e-02 4.802449941635131836e-01 4.653973877429962158e-01 -5.559609532356262207e-01 -5.419042110443115234e-01 -5.125482082366943359e-01 -7.709606736898422241e-02 6.055219173431396484e-01 -1.022577658295631409e-01
5.115669369697570801e-01 -2.635362148284912109e-01 -1.386149048805236816e+00 8.685638308525085449e-01 -6.725564599037170410e-01 4.668642282485961914e-01 3.235473334789276123e-01 -2.412540912628173828e-01 -7.923758774995803833e-02 3.751596510410308838e-01
-2.239463329315185547e-01 -1.796063035726547241e-01 2.263036817312240601e-01 -2.370063066482543945e-01 -1.745188981294631958e-01 5.926892757415771484e-01 -2.949791550636291504e-01 -1.797111034393310547e-01 1.930298656225204468e-02 2.258290648460388184e-01
-2.381687462329864502e-01 -5.003815889358520508e-01 3.070431649684906006e-01 1.044512629508972168e+00 -1.799625754356384277e+00 -1.921110302209854126e-01 -2.214262336492538452e-01 -1.916401386260986328e-01 4.541966617107391357e-01 1.712564677000045776e-01
-1.816327422857284546e-01 -1.480167061090469360e-01 -3.062957525253295898e-01 8.076682090759277344e-01 -7.386028170585632324e-01 -4.462398886680603027e-01 3.934375047683715820e-01 -9.073150157928466797e-01 6.000548005104064941e-01 4.212324023246765137e-01
4.049415141344070435e-02 -3.880283534526824951e-01 -6.442375183105468750e-01 -9.902250170707702637e-01 6.275201439857482910e-01 1.779742956161499023e+00 1.094018220901489258e-01 -3.847742676734924316e-01 2.152488194406032562e-02 -6.664096713066101074e-01
-1.842129826545715332e-01 -3.934440389275550842e-02 1.171987771987915039e+00 -5.852881073951721191e-01 -2.670126557350158691e-01 -8.713132739067077637e-01 4.240802228450775146e-01 -9.973284602165222168e-01 -3.664631396532058716e-02 1.346175551414489746e+00
-3.719506263732910156e-01 -2.346719503402709961e-01 -2.978768050670623779e-01 -1.060818880796432495e-01 5.992563366889953613e-01 5.339988470077514648e-01 -4.312847852706909180e-01 -3.275642096996307373e-01 3.987129926681518555e-01 5.932394266128540039e-01
-7.613405585289001465e-01 -4.114642441272735596e-01 -5.909777283668518066e-01 -7.211960107088088989e-02 3.502421379089355469e-01 8.340463638305664062e-01 -3.324138820171356201e-01 1.119216531515121460e-01 -5.990001372992992401e-03 6.439939737319946289e-01
-8.442815542221069336e-01 -1.988318115472793579e-01 -2.799803912639617920e-01 2.005482912063598633e-01 1.820585876703262329e-01 1.747517824172973633e+00 -2.391638457775115967e-01 4.254100024700164795e-01 -1.736207753419876099e-01 -5.001330375671386719e-01
-7.617247849702835083e-02 -2.742488980293273926e-01 1.437042653560638428e-01 -2.395899593830108643e-01 -5.463789105415344238e-01 1.494884490966796875e+00 -3.043980710208415985e-02 -1.987068951129913330e-01 4.811164736747741699e-01 -1.000032067298889160e+00
-9.921444952487945557e-02 -6.958670169115066528e-02 5.375549197196960449e-01 -1.140109822154045105e-02 -6.304237246513366699e-01 -7.609205245971679688e-01 3.024106025695800781e-01 3.637679517269134521e-01 6.939882040023803711e-01 -6.084038615226745605e-01
